0.09921354800462723 0.026593584567308426 -0.08290649205446243 -0.0644347071647644 0.06300197541713715 -0.12166988849639893 -0.0905500203371048 -0.03385774418711662 -0.06514951586723328 0.06178482621908188 0.02235368639230728 -0.005320683587342501 0.06727221608161926 0.08060656487941742 -0.058471035212278366 -0.022049717605113983 0.013019849546253681 -0.05290601775050163 0.0682290643453598 -0.030270744115114212 -0.004035533405840397 0.018408343195915222 0.08344877511262894 -0.02322041243314743 0.11178676784038544 -0.032648488879203796 0.19375339150428772 -0.0765162855386734 0.01867540366947651 -0.012289553880691528 -0.008549332618713379 0.08363217115402222 0.06566021591424942 0.008618447929620743 0.08379489928483963 0.023662123829126358 0.026521695777773857 0.14800414443016052 -0.07081054151058197 -0.07178709656000137 0.08070597052574158 0.01141788437962532 -0.11381521075963974 0.09180458635091782 -0.015044905245304108 0.03436068072915077 -0.005491531454026699 -0.07694608718156815 -0.03244642913341522 -0.015987275168299675 0.008899993263185024 -0.05362395942211151 0.050075359642505646 -0.14831726253032684 -0.030788736417889595 -0.015253647230565548 -0.009572017006576061 0.09506310522556305 -0.040776029229164124 0.0257547777146101 -0.06310413777828217 0.02369837276637554 -0.08244118839502335 -0.0644480288028717 0.1394137740135193 -0.05456733703613281 0.021970108151435852 0.06485651433467865 0.19958971440792084 0.04249581694602966 -0.08338745683431625 -0.17845413088798523 -0.061015937477350235 -0.3643803000450134 